digraph Tree {
node [shape=box] ;
0 [label="loan_duration <= 6.5\ngini = 0.3942\nsamples = 400\nvalue = [108, 292]"] ;
1 [label="fico_mean <= 647.5\ngini = 0.2991\nsamples = 284\nvalue = [52, 232]"] ;
0 -> 1 [labeldistance=2.5, labelangle=45, headlabel="True"] ;
2 [label="fico_mean <= 339.5\ngini = 0.3247\nsamples = 255\nvalue = [52, 203]"] ;
1 -> 2 ;
3 [label="gini = 0.0\nsamples = 1\nvalue = [1, 0]"] ;
2 -> 3 ;
4 [label="fico_mean <= 610.5\ngini = 0.3209\nsamples = 254\nvalue = [51, 203]"] ;
2 -> 4 ;
5 [label="fico_mean <= 588.5\ngini = 0.3471\nsamples = 170\nvalue = [38, 132]"] ;
4 -> 5 ;
6 [label="fico_mean <= 564.5\ngini = 0.2695\nsamples = 81\nvalue = [13, 68]"] ;
5 -> 6 ;
7 [label="fico_mean <= 558.5\ngini = 0.4082\nsamples = 21\nvalue = [6, 15]"] ;
6 -> 7 ;
8 [label="fico_mean <= 551.5\ngini = 0.18\nsamples = 10\nvalue = [1, 9]"] ;
7 -> 8 ;
9 [label="loan_duration <= 4.5\ngini = 0.375\nsamples = 4\nvalue = [1, 3]"] ;
8 -> 9 ;
10 [label="gini = 0.0\nsamples = 3\nvalue = [0, 3]"] ;
9 -> 10 ;
11 [label="gini = 0.0\nsamples = 1\nvalue = [1, 0]"] ;
9 -> 11 ;
12 [label="gini = 0.0\nsamples = 6\nvalue = [0, 6]"] ;
8 -> 12 ;
13 [label="fico_mean <= 560.5\ngini = 0.4959\nsamples = 11\nvalue = [5, 6]"] ;
7 -> 13 ;
14 [label="residence_rent_or_own <= 0.5\ngini = 0.375\nsamples = 4\nvalue = [3, 1]"] ;
13 -> 14 ;
15 [label="gini = 0.0\nsamples = 1\nvalue = [0, 1]"] ;
14 -> 15 ;
16 [label="gini = 0.0\nsamples = 3\nvalue = [3, 0]"] ;
14 -> 16 ;
17 [label="fico_mean <= 562.5\ngini = 0.4082\nsamples = 7\nvalue = [2, 5]"] ;
13 -> 17 ;
18 [label="gini = 0.0\nsamples = 3\nvalue = [0, 3]"] ;
17 -> 18 ;
19 [label="loan_duration <= 5.5\ngini = 0.5\nsamples = 4\nvalue = [2, 2]"] ;
17 -> 19 ;
20 [label="residence_rent_or_own <= 0.5\ngini = 0.4444\nsamples = 3\nvalue = [2, 1]"] ;
19 -> 20 ;
21 [label="gini = 0.0\nsamples = 1\nvalue = [1, 0]"] ;
20 -> 21 ;
22 [label="gini = 0.5\nsamples = 2\nvalue = [1, 1]"] ;
20 -> 22 ;
23 [label="gini = 0.0\nsamples = 1\nvalue = [0, 1]"] ;
19 -> 23 ;
24 [label="loan_duration <= 4.5\ngini = 0.2061\nsamples = 60\nvalue = [7, 53]"] ;
6 -> 24 ;
25 [label="gini = 0.0\nsamples = 7\nvalue = [0, 7]"] ;
24 -> 25 ;
26 [label="fico_mean <= 575.5\ngini = 0.2293\nsamples = 53\nvalue = [7, 46]"] ;
24 -> 26 ;
27 [label="fico_mean <= 569.5\ngini = 0.1244\nsamples = 15\nvalue = [1, 14]"] ;
26 -> 27 ;
28 [label="fico_mean <= 568.5\ngini = 0.2778\nsamples = 6\nvalue = [1, 5]"] ;
27 -> 28 ;
29 [label="gini = 0.0\nsamples = 4\nvalue = [0, 4]"] ;
28 -> 29 ;
30 [label="gini = 0.5\nsamples = 2\nvalue = [1, 1]"] ;
28 -> 30 ;
31 [label="gini = 0.0\nsamples = 9\nvalue = [0, 9]"] ;
27 -> 31 ;
32 [label="fico_mean <= 576.5\ngini = 0.2659\nsamples = 38\nvalue = [6, 32]"] ;
26 -> 32 ;
33 [label="residence_rent_or_own <= 0.5\ngini = 0.48\nsamples = 5\nvalue = [2, 3]"] ;
32 -> 33 ;
34 [label="gini = 0.0\nsamples = 1\nvalue = [0, 1]"] ;
33 -> 34 ;
35 [label="loan_duration <= 5.5\ngini = 0.5\nsamples = 4\nvalue = [2, 2]"] ;
33 -> 35 ;
36 [label="gini = 0.4444\nsamples = 3\nvalue = [2, 1]"] ;
35 -> 36 ;
37 [label="gini = 0.0\nsamples = 1\nvalue = [0, 1]"] ;
35 -> 37 ;
38 [label="fico_mean <= 578.5\ngini = 0.213\nsamples = 33\nvalue = [4, 29]"] ;
32 -> 38 ;
39 [label="loan_duration <= 5.5\ngini = 0.32\nsamples = 5\nvalue = [1, 4]"] ;
38 -> 39 ;
40 [label="gini = 0.0\nsamples = 2\nvalue = [0, 2]"] ;
39 -> 40 ;
41 [label="residence_rent_or_own <= 0.5\ngini = 0.4444\nsamples = 3\nvalue = [1, 2]"] ;
39 -> 41 ;
42 [label="gini = 0.0\nsamples = 1\nvalue = [0, 1]"] ;
41 -> 42 ;
43 [label="fico_mean <= 577.5\ngini = 0.5\nsamples = 2\nvalue = [1, 1]"] ;
41 -> 43 ;
44 [label="gini = 0.0\nsamples = 1\nvalue = [0, 1]"] ;
43 -> 44 ;
45 [label="gini = 0.0\nsamples = 1\nvalue = [1, 0]"] ;
43 -> 45 ;
46 [label="fico_mean <= 580.5\ngini = 0.1913\nsamples = 28\nvalue = [3, 25]"] ;
38 -> 46 ;
47 [label="gini = 0.0\nsamples = 7\nvalue = [0, 7]"] ;
46 -> 47 ;
48 [label="fico_mean <= 581.5\ngini = 0.2449\nsamples = 21\nvalue = [3, 18]"] ;
46 -> 48 ;
49 [label="residence_rent_or_own <= 0.5\ngini = 0.4444\nsamples = 3\nvalue = [1, 2]"] ;
48 -> 49 ;
50 [label="gini = 0.0\nsamples = 1\nvalue = [0, 1]"] ;
49 -> 50 ;
51 [label="gini = 0.5\nsamples = 2\nvalue = [1, 1]"] ;
49 -> 51 ;
52 [label="loan_duration <= 5.5\ngini = 0.1975\nsamples = 18\nvalue = [2, 16]"] ;
48 -> 52 ;
53 [label="residence_rent_or_own <= 0.5\ngini = 0.2449\nsamples = 14\nvalue = [2, 12]"] ;
52 -> 53 ;
54 [label="fico_mean <= 583.0\ngini = 0.375\nsamples = 4\nvalue = [1, 3]"] ;
53 -> 54 ;
55 [label="gini = 0.0\nsamples = 1\nvalue = [1, 0]"] ;
54 -> 55 ;
56 [label="gini = 0.0\nsamples = 3\nvalue = [0, 3]"] ;
54 -> 56 ;
57 [label="fico_mean <= 586.5\ngini = 0.18\nsamples = 10\nvalue = [1, 9]"] ;
53 -> 57 ;
58 [label="gini = 0.0\nsamples = 7\nvalue = [0, 7]"] ;
57 -> 58 ;
59 [label="fico_mean <= 587.5\ngini = 0.4444\nsamples = 3\nvalue = [1, 2]"] ;
57 -> 59 ;
60 [label="gini = 0.5\nsamples = 2\nvalue = [1, 1]"] ;
59 -> 60 ;
61 [label="gini = 0.0\nsamples = 1\nvalue = [0, 1]"] ;
59 -> 61 ;
62 [label="gini = 0.0\nsamples = 4\nvalue = [0, 4]"] ;
52 -> 62 ;
63 [label="fico_mean <= 589.5\ngini = 0.404\nsamples = 89\nvalue = [25, 64]"] ;
5 -> 63 ;
64 [label="loan_duration <= 4.0\ngini = 0.4444\nsamples = 6\nvalue = [4, 2]"] ;
63 -> 64 ;
65 [label="gini = 0.0\nsamples = 1\nvalue = [1, 0]"] ;
64 -> 65 ;
66 [label="loan_duration <= 5.5\ngini = 0.48\nsamples = 5\nvalue = [3, 2]"] ;
64 -> 66 ;
67 [label="gini = 0.5\nsamples = 4\nvalue = [2, 2]"] ;
66 -> 67 ;
68 [label="gini = 0.0\nsamples = 1\nvalue = [1, 0]"] ;
66 -> 68 ;
69 [label="loan_duration <= 3.5\ngini = 0.378\nsamples = 83\nvalue = [21, 62]"] ;
63 -> 69 ;
70 [label="fico_mean <= 605.0\ngini = 0.4959\nsamples = 11\nvalue = [5, 6]"] ;
69 -> 70 ;
71 [label="fico_mean <= 598.0\ngini = 0.2778\nsamples = 6\nvalue = [1, 5]"] ;
70 -> 71 ;
72 [label="fico_mean <= 594.0\ngini = 0.4444\nsamples = 3\nvalue = [1, 2]"] ;
71 -> 72 ;
73 [label="gini = 0.0\nsamples = 2\nvalue = [0, 2]"] ;
72 -> 73 ;
74 [label="gini = 0.0\nsamples = 1\nvalue = [1, 0]"] ;
72 -> 74 ;
75 [label="gini = 0.0\nsamples = 3\nvalue = [0, 3]"] ;
71 -> 75 ;
76 [label="residence_rent_or_own <= 0.5\ngini = 0.32\nsamples = 5\nvalue = [4, 1]"] ;
70 -> 76 ;
77 [label="gini = 0.5\nsamples = 2\nvalue = [1, 1]"] ;
76 -> 77 ;
78 [label="gini = 0.0\nsamples = 3\nvalue = [3, 0]"] ;
76 -> 78 ;
79 [label="fico_mean <= 600.5\ngini = 0.3457\nsamples = 72\nvalue = [16, 56]"] ;
69 -> 79 ;
80 [label="fico_mean <= 595.5\ngini = 0.4444\nsamples = 30\nvalue = [10, 20]"] ;
79 -> 80 ;
81 [label="loan_duration <= 5.5\ngini = 0.32\nsamples = 15\nvalue = [3, 12]"] ;
80 -> 81 ;
82 [label="gini = 0.0\nsamples = 9\nvalue = [0, 9]"] ;
81 -> 82 ;
83 [label="fico_mean <= 593.5\ngini = 0.5\nsamples = 6\nvalue = [3, 3]"] ;
81 -> 83 ;
84 [label="fico_mean <= 592.5\ngini = 0.48\nsamples = 5\nvalue = [3, 2]"] ;
83 -> 84 ;
85 [label="fico_mean <= 591.0\ngini = 0.5\nsamples = 4\nvalue = [2, 2]"] ;
84 -> 85 ;
86 [label="gini = 0.4444\nsamples = 3\nvalue = [2, 1]"] ;
85 -> 86 ;
87 [label="gini = 0.0\nsamples = 1\nvalue = [0, 1]"] ;
85 -> 87 ;
88 [label="gini = 0.0\nsamples = 1\nvalue = [1, 0]"] ;
84 -> 88 ;
89 [label="gini = 0.0\nsamples = 1\nvalue = [0, 1]"] ;
83 -> 89 ;
90 [label="loan_duration <= 5.5\ngini = 0.4978\nsamples = 15\nvalue = [7, 8]"] ;
80 -> 90 ;
91 [label="fico_mean <= 596.5\ngini = 0.5\nsamples = 14\nvalue = [7, 7]"] ;
90 -> 91 ;
92 [label="residence_rent_or_own <= 0.5\ngini = 0.5\nsamples = 4\nvalue = [2, 2]"] ;
91 -> 92 ;
93 [label="gini = 0.5\nsamples = 2\nvalue = [1, 1]"] ;
92 -> 93 ;
94 [label="gini = 0.5\nsamples = 2\nvalue = [1, 1]"] ;
92 -> 94 ;
95 [label="residence_rent_or_own <= 0.5\ngini = 0.5\nsamples = 10\nvalue = [5, 5]"] ;
91 -> 95 ;
96 [label="fico_mean <= 597.5\ngini = 0.5\nsamples = 4\nvalue = [2, 2]"] ;
95 -> 96 ;
97 [label="gini = 0.0\nsamples = 1\nvalue = [1, 0]"] ;
96 -> 97 ;
98 [label="fico_mean <= 599.0\ngini = 0.4444\nsamples = 3\nvalue = [1, 2]"] ;
96 -> 98 ;
99 [label="gini = 0.5\nsamples = 2\nvalue = [1, 1]"] ;
98 -> 99 ;
100 [label="gini = 0.0\nsamples = 1\nvalue = [0, 1]"] ;
98 -> 100 ;
101 [label="fico_mean <= 599.5\ngini = 0.5\nsamples = 6\nvalue = [3, 3]"] ;
95 -> 101 ;
102 [label="fico_mean <= 598.0\ngini = 0.48\nsamples = 5\nvalue = [2, 3]"] ;
101 -> 102 ;
103 [label="gini = 0.4444\nsamples = 3\nvalue = [1, 2]"] ;
102 -> 103 ;
104 [label="gini = 0.5\nsamples = 2\nvalue = [1, 1]"] ;
102 -> 104 ;
105 [label="gini = 0.0\nsamples = 1\nvalue = [1, 0]"] ;
101 -> 105 ;
106 [label="gini = 0.0\nsamples = 1\nvalue = [0, 1]"] ;
90 -> 106 ;
107 [label="fico_mean <= 609.5\ngini = 0.2449\nsamples = 42\nvalue = [6, 36]"] ;
79 -> 107 ;
108 [label="fico_mean <= 605.5\ngini = 0.2285\nsamples = 38\nvalue = [5, 33]"] ;
107 -> 108 ;
109 [label="fico_mean <= 604.5\ngini = 0.2688\nsamples = 25\nvalue = [4, 21]"] ;
108 -> 109 ;
110 [label="residence_rent_or_own <= 0.5\ngini = 0.1975\nsamples = 18\nvalue = [2, 16]"] ;
109 -> 110 ;
111 [label="loan_duration <= 5.5\ngini = 0.32\nsamples = 10\nvalue = [2, 8]"] ;
110 -> 111 ;
112 [label="fico_mean <= 603.5\ngini = 0.375\nsamples = 8\nvalue = [2, 6]"] ;
111 -> 112 ;
113 [label="fico_mean <= 602.5\ngini = 0.4444\nsamples = 6\nvalue = [2, 4]"] ;
112 -> 113 ;
114 [label="fico_mean <= 601.5\ngini = 0.32\nsamples = 5\nvalue = [1, 4]"] ;
113 -> 114 ;
115 [label="gini = 0.375\nsamples = 4\nvalue = [1, 3]"] ;
114 -> 115 ;
116 [label="gini = 0.0\nsamples = 1\nvalue = [0, 1]"] ;
114 -> 116 ;
117 [label="gini = 0.0\nsamples = 1\nvalue = [1, 0]"] ;
113 -> 117 ;
118 [label="gini = 0.0\nsamples = 2\nvalue = [0, 2]"] ;
112 -> 118 ;
119 [label="gini = 0.0\nsamples = 2\nvalue = [0, 2]"] ;
111 -> 119 ;
120 [label="gini = 0.0\nsamples = 8\nvalue = [0, 8]"] ;
110 -> 120 ;
121 [label="loan_duration <= 5.5\ngini = 0.4082\nsamples = 7\nvalue = [2, 5]"] ;
109 -> 121 ;
122 [label="gini = 0.0\nsamples = 3\nvalue = [0, 3]"] ;
121 -> 122 ;
123 [label="gini = 0.5\nsamples = 4\nvalue = [2, 2]"] ;
121 -> 123 ;
124 [label="residence_rent_or_own <= 0.5\ngini = 0.142\nsamples = 13\nvalue = [1, 12]"] ;
108 -> 124 ;
125 [label="gini = 0.0\nsamples = 5\nvalue = [0, 5]"] ;
124 -> 125 ;
126 [label="fico_mean <= 608.5\ngini = 0.2188\nsamples = 8\nvalue = [1, 7]"] ;
124 -> 126 ;
127 [label="fico_mean <= 607.0\ngini = 0.2778\nsamples = 6\nvalue = [1, 5]"] ;
126 -> 127 ;
128 [label="gini = 0.0\nsamples = 1\nvalue = [0, 1]"] ;
127 -> 128 ;
129 [label="gini = 0.32\nsamples = 5\nvalue = [1, 4]"] ;
127 -> 129 ;
130 [label="gini = 0.0\nsamples = 2\nvalue = [0, 2]"] ;
126 -> 130 ;
131 [label="residence_rent_or_own <= 0.5\ngini = 0.375\nsamples = 4\nvalue = [1, 3]"] ;
107 -> 131 ;
132 [label="gini = 0.0\nsamples = 1\nvalue = [1, 0]"] ;
131 -> 132 ;
133 [label="gini = 0.0\nsamples = 3\nvalue = [0, 3]"] ;
131 -> 133 ;
134 [label="fico_mean <= 619.5\ngini = 0.2616\nsamples = 84\nvalue = [13, 71]"] ;
4 -> 134 ;
135 [label="residence_rent_or_own <= 0.5\ngini = 0.0644\nsamples = 30\nvalue = [1, 29]"] ;
134 -> 135 ;
136 [label="fico_mean <= 615.5\ngini = 0.1653\nsamples = 11\nvalue = [1, 10]"] ;
135 -> 136 ;
137 [label="gini = 0.0\nsamples = 5\nvalue = [0, 5]"] ;
136 -> 137 ;
138 [label="fico_mean <= 616.5\ngini = 0.2778\nsamples = 6\nvalue = [1, 5]"] ;
136 -> 138 ;
139 [label="gini = 0.0\nsamples = 1\nvalue = [1, 0]"] ;
138 -> 139 ;
140 [label="gini = 0.0\nsamples = 5\nvalue = [0, 5]"] ;
138 -> 140 ;
141 [label="gini = 0.0\nsamples = 19\nvalue = [0, 19]"] ;
135 -> 141 ;
142 [label="fico_mean <= 622.5\ngini = 0.3457\nsamples = 54\nvalue = [12, 42]"] ;
134 -> 142 ;
143 [label="fico_mean <= 621.5\ngini = 0.48\nsamples = 5\nvalue = [2, 3]"] ;
142 -> 143 ;
144 [label="loan_duration <= 5.5\ngini = 0.375\nsamples = 4\nvalue = [1, 3]"] ;
143 -> 144 ;
145 [label="fico_mean <= 620.5\ngini = 0.4444\nsamples = 3\nvalue = [1, 2]"] ;
144 -> 145 ;
146 [label="gini = 0.5\nsamples = 2\nvalue = [1, 1]"] ;
145 -> 146 ;
147 [label="gini = 0.0\nsamples = 1\nvalue = [0, 1]"] ;
145 -> 147 ;
148 [label="gini = 0.0\nsamples = 1\nvalue = [0, 1]"] ;
144 -> 148 ;
149 [label="gini = 0.0\nsamples = 1\nvalue = [1, 0]"] ;
143 -> 149 ;
150 [label="fico_mean <= 630.5\ngini = 0.3249\nsamples = 49\nvalue = [10, 39]"] ;
142 -> 150 ;
151 [label="residence_rent_or_own <= 0.5\ngini = 0.2355\nsamples = 22\nvalue = [3, 19]"] ;
150 -> 151 ;
152 [label="loan_duration <= 4.5\ngini = 0.375\nsamples = 8\nvalue = [2, 6]"] ;
151 -> 152 ;
153 [label="gini = 0.0\nsamples = 2\nvalue = [0, 2]"] ;
152 -> 153 ;
154 [label="fico_mean <= 623.5\ngini = 0.4444\nsamples = 6\nvalue = [2, 4]"] ;
152 -> 154 ;
155 [label="gini = 0.0\nsamples = 1\nvalue = [1, 0]"] ;
154 -> 155 ;
156 [label="fico_mean <= 625.0\ngini = 0.32\nsamples = 5\nvalue = [1, 4]"] ;
154 -> 156 ;
157 [label="gini = 0.0\nsamples = 1\nvalue = [0, 1]"] ;
156 -> 157 ;
158 [label="fico_mean <= 627.0\ngini = 0.375\nsamples = 4\nvalue = [1, 3]"] ;
156 -> 158 ;
159 [label="gini = 0.4444\nsamples = 3\nvalue = [1, 2]"] ;
158 -> 159 ;
160 [label="gini = 0.0\nsamples = 1\nvalue = [0, 1]"] ;
158 -> 160 ;
161 [label="loan_duration <= 5.5\ngini = 0.1327\nsamples = 14\nvalue = [1, 13]"] ;
151 -> 161 ;
162 [label="gini = 0.0\nsamples = 9\nvalue = [0, 9]"] ;
161 -> 162 ;
163 [label="fico_mean <= 627.0\ngini = 0.32\nsamples = 5\nvalue = [1, 4]"] ;
161 -> 163 ;
164 [label="gini = 0.0\nsamples = 2\nvalue = [0, 2]"] ;
163 -> 164 ;
165 [label="fico_mean <= 628.5\ngini = 0.4444\nsamples = 3\nvalue = [1, 2]"] ;
163 -> 165 ;
166 [label="gini = 0.0\nsamples = 1\nvalue = [1, 0]"] ;
165 -> 166 ;
167 [label="gini = 0.0\nsamples = 2\nvalue = [0, 2]"] ;
165 -> 167 ;
168 [label="fico_mean <= 631.5\ngini = 0.3841\nsamples = 27\nvalue = [7, 20]"] ;
150 -> 168 ;
169 [label="gini = 0.0\nsamples = 2\nvalue = [2, 0]"] ;
168 -> 169 ;
170 [label="residence_rent_or_own <= 0.5\ngini = 0.32\nsamples = 25\nvalue = [5, 20]"] ;
168 -> 170 ;
171 [label="fico_mean <= 646.0\ngini = 0.1653\nsamples = 11\nvalue = [1, 10]"] ;
170 -> 171 ;
172 [label="gini = 0.0\nsamples = 10\nvalue = [0, 10]"] ;
171 -> 172 ;
173 [label="gini = 0.0\nsamples = 1\nvalue = [1, 0]"] ;
171 -> 173 ;
174 [label="fico_mean <= 644.5\ngini = 0.4082\nsamples = 14\nvalue = [4, 10]"] ;
170 -> 174 ;
175 [label="fico_mean <= 641.0\ngini = 0.48\nsamples = 10\nvalue = [4, 6]"] ;
174 -> 175 ;
176 [label="fico_mean <= 637.5\ngini = 0.4444\nsamples = 9\nvalue = [3, 6]"] ;
175 -> 176 ;
177 [label="loan_duration <= 4.0\ngini = 0.4688\nsamples = 8\nvalue = [3, 5]"] ;
176 -> 177 ;
178 [label="gini = 0.0\nsamples = 1\nvalue = [0, 1]"] ;
177 -> 178 ;
179 [label="fico_mean <= 635.5\ngini = 0.4898\nsamples = 7\nvalue = [3, 4]"] ;
177 -> 179 ;
180 [label="fico_mean <= 634.0\ngini = 0.5\nsamples = 4\nvalue = [2, 2]"] ;
179 -> 180 ;
181 [label="gini = 0.5\nsamples = 2\nvalue = [1, 1]"] ;
180 -> 181 ;
182 [label="gini = 0.5\nsamples = 2\nvalue = [1, 1]"] ;
180 -> 182 ;
183 [label="fico_mean <= 636.5\ngini = 0.4444\nsamples = 3\nvalue = [1, 2]"] ;
179 -> 183 ;
184 [label="gini = 0.0\nsamples = 1\nvalue = [0, 1]"] ;
183 -> 184 ;
185 [label="gini = 0.5\nsamples = 2\nvalue = [1, 1]"] ;
183 -> 185 ;
186 [label="gini = 0.0\nsamples = 1\nvalue = [0, 1]"] ;
176 -> 186 ;
187 [label="gini = 0.0\nsamples = 1\nvalue = [1, 0]"] ;
175 -> 187 ;
188 [label="gini = 0.0\nsamples = 4\nvalue = [0, 4]"] ;
174 -> 188 ;
189 [label="gini = 0.0\nsamples = 29\nvalue = [0, 29]"] ;
1 -> 189 ;
190 [label="fico_mean <= 584.5\ngini = 0.4994\nsamples = 116\nvalue = [56, 60]"] ;
0 -> 190 [labeldistance=2.5, labelangle=-45, headlabel="False"] ;
191 [label="fico_mean <= 536.0\ngini = 0.2188\nsamples = 24\nvalue = [21, 3]"] ;
190 -> 191 ;
192 [label="gini = 0.0\nsamples = 1\nvalue = [0, 1]"] ;
191 -> 192 ;
193 [label="fico_mean <= 566.5\ngini = 0.1588\nsamples = 23\nvalue = [21, 2]"] ;
191 -> 193 ;
194 [label="gini = 0.0\nsamples = 6\nvalue = [6, 0]"] ;
193 -> 194 ;
195 [label="fico_mean <= 568.0\ngini = 0.2076\nsamples = 17\nvalue = [15, 2]"] ;
193 -> 195 ;
196 [label="gini = 0.0\nsamples = 1\nvalue = [0, 1]"] ;
195 -> 196 ;
197 [label="fico_mean <= 578.5\ngini = 0.1172\nsamples = 16\nvalue = [15, 1]"] ;
195 -> 197 ;
198 [label="gini = 0.0\nsamples = 9\nvalue = [9, 0]"] ;
197 -> 198 ;
199 [label="fico_mean <= 580.5\ngini = 0.2449\nsamples = 7\nvalue = [6, 1]"] ;
197 -> 199 ;
200 [label="gini = 0.4444\nsamples = 3\nvalue = [2, 1]"] ;
199 -> 200 ;
201 [label="gini = 0.0\nsamples = 4\nvalue = [4, 0]"] ;
199 -> 201 ;
202 [label="fico_mean <= 625.5\ngini = 0.4714\nsamples = 92\nvalue = [35, 57]"] ;
190 -> 202 ;
203 [label="fico_mean <= 613.5\ngini = 0.4989\nsamples = 63\nvalue = [30, 33]"] ;
202 -> 203 ;
204 [label="fico_mean <= 585.5\ngini = 0.4831\nsamples = 49\nvalue = [20, 29]"] ;
203 -> 204 ;
205 [label="gini = 0.0\nsamples = 3\nvalue = [0, 3]"] ;
204 -> 205 ;
206 [label="fico_mean <= 595.5\ngini = 0.4915\nsamples = 46\nvalue = [20, 26]"] ;
204 -> 206 ;
207 [label="fico_mean <= 587.0\ngini = 0.4753\nsamples = 18\nvalue = [11, 7]"] ;
206 -> 207 ;
208 [label="gini = 0.5\nsamples = 2\nvalue = [1, 1]"] ;
207 -> 208 ;
209 [label="fico_mean <= 589.0\ngini = 0.4688\nsamples = 16\nvalue = [10, 6]"] ;
207 -> 209 ;
210 [label="residence_rent_or_own <= 0.5\ngini = 0.375\nsamples = 4\nvalue = [3, 1]"] ;
209 -> 210 ;
211 [label="gini = 0.0\nsamples = 1\nvalue = [1, 0]"] ;
210 -> 211 ;
212 [label="gini = 0.4444\nsamples = 3\nvalue = [2, 1]"] ;
210 -> 212 ;
213 [label="fico_mean <= 592.0\ngini = 0.4861\nsamples = 12\nvalue = [7, 5]"] ;
209 -> 213 ;
214 [label="fico_mean <= 590.5\ngini = 0.5\nsamples = 4\nvalue = [2, 2]"] ;
213 -> 214 ;
215 [label="gini = 0.5\nsamples = 2\nvalue = [1, 1]"] ;
214 -> 215 ;
216 [label="gini = 0.5\nsamples = 2\nvalue = [1, 1]"] ;
214 -> 216 ;
217 [label="residence_rent_or_own <= 0.5\ngini = 0.4688\nsamples = 8\nvalue = [5, 3]"] ;
213 -> 217 ;
218 [label="fico_mean <= 594.5\ngini = 0.5\nsamples = 2\nvalue = [1, 1]"] ;
217 -> 218 ;
219 [label="gini = 0.0\nsamples = 1\nvalue = [0, 1]"] ;
218 -> 219 ;
220 [label="gini = 0.0\nsamples = 1\nvalue = [1, 0]"] ;
218 -> 220 ;
221 [label="fico_mean <= 594.5\ngini = 0.4444\nsamples = 6\nvalue = [4, 2]"] ;
217 -> 221 ;
222 [label="fico_mean <= 593.5\ngini = 0.375\nsamples = 4\nvalue = [3, 1]"] ;
221 -> 222 ;
223 [label="gini = 0.4444\nsamples = 3\nvalue = [2, 1]"] ;
222 -> 223 ;
224 [label="gini = 0.0\nsamples = 1\nvalue = [1, 0]"] ;
222 -> 224 ;
225 [label="gini = 0.5\nsamples = 2\nvalue = [1, 1]"] ;
221 -> 225 ;
226 [label="residence_rent_or_own <= 0.5\ngini = 0.4362\nsamples = 28\nvalue = [9, 19]"] ;
206 -> 226 ;
227 [label="fico_mean <= 597.5\ngini = 0.4861\nsamples = 12\nvalue = [5, 7]"] ;
226 -> 227 ;
228 [label="gini = 0.0\nsamples = 1\nvalue = [1, 0]"] ;
227 -> 228 ;
229 [label="fico_mean <= 599.0\ngini = 0.4628\nsamples = 11\nvalue = [4, 7]"] ;
227 -> 229 ;
230 [label="gini = 0.0\nsamples = 2\nvalue = [0, 2]"] ;
229 -> 230 ;
231 [label="fico_mean <= 602.5\ngini = 0.4938\nsamples = 9\nvalue = [4, 5]"] ;
229 -> 231 ;
232 [label="gini = 0.0\nsamples = 2\nvalue = [2, 0]"] ;
231 -> 232 ;
233 [label="loan_duration <= 7.5\ngini = 0.4082\nsamples = 7\nvalue = [2, 5]"] ;
231 -> 233 ;
234 [label="gini = 0.0\nsamples = 1\nvalue = [1, 0]"] ;
233 -> 234 ;
235 [label="fico_mean <= 611.0\ngini = 0.2778\nsamples = 6\nvalue = [1, 5]"] ;
233 -> 235 ;
236 [label="gini = 0.0\nsamples = 4\nvalue = [0, 4]"] ;
235 -> 236 ;
237 [label="fico_mean <= 612.5\ngini = 0.5\nsamples = 2\nvalue = [1, 1]"] ;
235 -> 237 ;
238 [label="gini = 0.0\nsamples = 1\nvalue = [1, 0]"] ;
237 -> 238 ;
239 [label="gini = 0.0\nsamples = 1\nvalue = [0, 1]"] ;
237 -> 239 ;
240 [label="fico_mean <= 597.5\ngini = 0.375\nsamples = 16\nvalue = [4, 12]"] ;
226 -> 240 ;
241 [label="gini = 0.0\nsamples = 2\nvalue = [0, 2]"] ;
240 -> 241 ;
242 [label="fico_mean <= 599.0\ngini = 0.4082\nsamples = 14\nvalue = [4, 10]"] ;
240 -> 242 ;
243 [label="loan_duration <= 7.5\ngini = 0.5\nsamples = 2\nvalue = [1, 1]"] ;
242 -> 243 ;
244 [label="gini = 0.0\nsamples = 1\nvalue = [0, 1]"] ;
243 -> 244 ;
245 [label="gini = 0.0\nsamples = 1\nvalue = [1, 0]"] ;
243 -> 245 ;
246 [label="fico_mean <= 610.5\ngini = 0.375\nsamples = 12\nvalue = [3, 9]"] ;
242 -> 246 ;
247 [label="fico_mean <= 607.5\ngini = 0.32\nsamples = 10\nvalue = [2, 8]"] ;
246 -> 247 ;
248 [label="fico_mean <= 601.0\ngini = 0.4082\nsamples = 7\nvalue = [2, 5]"] ;
247 -> 248 ;
249 [label="gini = 0.0\nsamples = 2\nvalue = [0, 2]"] ;
248 -> 249 ;
250 [label="fico_mean <= 603.5\ngini = 0.48\nsamples = 5\nvalue = [2, 3]"] ;
248 -> 250 ;
251 [label="gini = 0.5\nsamples = 2\nvalue = [1, 1]"] ;
250 -> 251 ;
252 [label="fico_mean <= 606.0\ngini = 0.4444\nsamples = 3\nvalue = [1, 2]"] ;
250 -> 252 ;
253 [label="gini = 0.0\nsamples = 1\nvalue = [0, 1]"] ;
252 -> 253 ;
254 [label="gini = 0.5\nsamples = 2\nvalue = [1, 1]"] ;
252 -> 254 ;
255 [label="gini = 0.0\nsamples = 3\nvalue = [0, 3]"] ;
247 -> 255 ;
256 [label="fico_mean <= 611.5\ngini = 0.5\nsamples = 2\nvalue = [1, 1]"] ;
246 -> 256 ;
257 [label="gini = 0.0\nsamples = 1\nvalue = [1, 0]"] ;
256 -> 257 ;
258 [label="gini = 0.0\nsamples = 1\nvalue = [0, 1]"] ;
256 -> 258 ;
259 [label="fico_mean <= 617.0\ngini = 0.4082\nsamples = 14\nvalue = [10, 4]"] ;
203 -> 259 ;
260 [label="gini = 0.0\nsamples = 3\nvalue = [3, 0]"] ;
259 -> 260 ;
261 [label="fico_mean <= 624.5\ngini = 0.4628\nsamples = 11\nvalue = [7, 4]"] ;
259 -> 261 ;
262 [label="fico_mean <= 623.0\ngini = 0.48\nsamples = 10\nvalue = [6, 4]"] ;
261 -> 262 ;
263 [label="fico_mean <= 618.5\ngini = 0.4444\nsamples = 9\nvalue = [6, 3]"] ;
262 -> 263 ;
264 [label="residence_rent_or_own <= 0.5\ngini = 0.5\nsamples = 2\nvalue = [1, 1]"] ;
263 -> 264 ;
265 [label="gini = 0.0\nsamples = 1\nvalue = [1, 0]"] ;
264 -> 265 ;
266 [label="gini = 0.0\nsamples = 1\nvalue = [0, 1]"] ;
264 -> 266 ;
267 [label="fico_mean <= 621.5\ngini = 0.4082\nsamples = 7\nvalue = [5, 2]"] ;
263 -> 267 ;
268 [label="residence_rent_or_own <= 0.5\ngini = 0.32\nsamples = 5\nvalue = [4, 1]"] ;
267 -> 268 ;
269 [label="gini = 0.5\nsamples = 2\nvalue = [1, 1]"] ;
268 -> 269 ;
270 [label="gini = 0.0\nsamples = 3\nvalue = [3, 0]"] ;
268 -> 270 ;
271 [label="gini = 0.5\nsamples = 2\nvalue = [1, 1]"] ;
267 -> 271 ;
272 [label="gini = 0.0\nsamples = 1\nvalue = [0, 1]"] ;
262 -> 272 ;
273 [label="gini = 0.0\nsamples = 1\nvalue = [1, 0]"] ;
261 -> 273 ;
274 [label="fico_mean <= 630.5\ngini = 0.2854\nsamples = 29\nvalue = [5, 24]"] ;
202 -> 274 ;
275 [label="gini = 0.0\nsamples = 5\nvalue = [0, 5]"] ;
274 -> 275 ;
276 [label="fico_mean <= 632.0\ngini = 0.3299\nsamples = 24\nvalue = [5, 19]"] ;
274 -> 276 ;
277 [label="gini = 0.0\nsamples = 1\nvalue = [1, 0]"] ;
276 -> 277 ;
278 [label="fico_mean <= 681.0\ngini = 0.2873\nsamples = 23\nvalue = [4, 19]"] ;
276 -> 278 ;
279 [label="fico_mean <= 672.0\ngini = 0.3324\nsamples = 19\nvalue = [4, 15]"] ;
278 -> 279 ;
280 [label="residence_rent_or_own <= 0.5\ngini = 0.2188\nsamples = 16\nvalue = [2, 14]"] ;
279 -> 280 ;
281 [label="gini = 0.0\nsamples = 9\nvalue = [0, 9]"] ;
280 -> 281 ;
282 [label="fico_mean <= 637.5\ngini = 0.4082\nsamples = 7\nvalue = [2, 5]"] ;
280 -> 282 ;
283 [label="fico_mean <= 634.5\ngini = 0.5\nsamples = 2\nvalue = [1, 1]"] ;
282 -> 283 ;
284 [label="gini = 0.0\nsamples = 1\nvalue = [0, 1]"] ;
283 -> 284 ;
285 [label="gini = 0.0\nsamples = 1\nvalue = [1, 0]"] ;
283 -> 285 ;
286 [label="fico_mean <= 649.0\ngini = 0.32\nsamples = 5\nvalue = [1, 4]"] ;
282 -> 286 ;
287 [label="gini = 0.0\nsamples = 3\nvalue = [0, 3]"] ;
286 -> 287 ;
288 [label="fico_mean <= 660.0\ngini = 0.5\nsamples = 2\nvalue = [1, 1]"] ;
286 -> 288 ;
289 [label="gini = 0.0\nsamples = 1\nvalue = [1, 0]"] ;
288 -> 289 ;
290 [label="gini = 0.0\nsamples = 1\nvalue = [0, 1]"] ;
288 -> 290 ;
291 [label="residence_rent_or_own <= 0.5\ngini = 0.4444\nsamples = 3\nvalue = [2, 1]"] ;
279 -> 291 ;
292 [label="gini = 0.0\nsamples = 1\nvalue = [1, 0]"] ;
291 -> 292 ;
293 [label="fico_mean <= 674.5\ngini = 0.5\nsamples = 2\nvalue = [1, 1]"] ;
291 -> 293 ;
294 [label="gini = 0.0\nsamples = 1\nvalue = [1, 0]"] ;
293 -> 294 ;
295 [label="gini = 0.0\nsamples = 1\nvalue = [0, 1]"] ;
293 -> 295 ;
296 [label="gini = 0.0\nsamples = 4\nvalue = [0, 4]"] ;
278 -> 296 ;
}